34 128
1 -0.004623 -0.005320 0.004580 -0.002477 0.002213 -0.005067 -0.000014 0.003208 0.003233 0.000318 -0.003110 0.000096 0.002786 -0.002767 -0.002255 -0.003719 0.002178 -0.002687 0.004346 -0.001688 0.002855 -0.000543 0.001850 0.001498 0.000842 0.000926 0.002377 0.003936 0.001834 -0.001412 -0.004001 0.002966 -0.000892 0.001118 -0.002638 -0.003830 -0.002362 -0.001195 0.003692 -0.004572 -0.003947 -0.002694 0.003600 0.003373 -0.002052 -0.002286 -0.002169 -0.000203 0.003409 0.003765 -0.003926 0.004441 -0.001073 0.004681 -0.004787 0.000323 -0.000722 0.003947 -0.003389 0.001704 0.002863 -0.005095 -0.003411 0.000987 -0.003180 0.000261 0.000383 0.001899 -0.003731 -0.000863 -0.000396 -0.003617 0.003464 -0.000216 -0.001967 -0.002492 0.003587 -0.002076 0.002138 -0.003727 -0.002096 -0.004693 0.000225 -0.004263 -0.002222 -0.001974 -0.001106 -0.000617 0.002791 0.000802 0.000974 0.000788 0.000918 -0.000621 -0.001245 0.000106 -0.001173 -0.003306 0.003509 0.001126 -0.003759 0.003506 0.001461 -0.001308 0.001965 0.004137 0.004185 0.002669 -0.001814 0.000598 -0.001427 -0.002079 0.001014 0.004038 -0.002387 -0.002069 0.002747 0.003172 -0.003875 -0.002231 -0.000893 0.001663 -0.003256 -0.001057 -0.001918 -0.000539 -0.001159 0.001526
34 -0.002667 -0.003097 0.003042 0.003318 0.003966 -0.002947 0.004302 -0.000669 -0.002623 0.000133 -0.004551 0.000750 0.001559 -0.001528 -0.002640 -0.002718 0.003568 -0.000014 0.003196 0.003221 0.001233 -0.000906 0.004737 -0.002568 0.000395 -0.003809 0.002424 -0.001287 -0.000920 0.002989 0.003530 0.001578 -0.003025 0.001352 0.000657 0.002281 0.005209 0.002295 0.000686 0.001207 -0.003067 0.003823 0.003814 0.002488 -0.001902 -0.002818 0.002768 -0.003177 0.002146 0.003477 0.001264 0.001863 0.002249 0.003685 -0.003509 -0.004137 -0.000237 0.000775 -0.000431 -0.001412 -0.000835 0.001186 -0.004408 0.001715 0.000081 -0.002875 -0.002472 -0.003658 0.003556 -0.000570 -0.001970 -0.000425 -0.003495 0.002537 0.000573 -0.000691 -0.002619 0.004149 0.000983 0.001930 -0.003701 -0.003036 0.001518 -0.003370 0.002075 0.004060 0.000005 0.001109 -0.002689 0.001888 -0.002908 0.000919 -0.000282 -0.000768 -0.001927 0.003151 -0.002170 0.002428 -0.001380 -0.001599 -0.002292 0.004268 -0.001127 -0.003318 -0.003985 0.000753 0.003746 -0.000622 -0.001176 0.001325 0.002043 0.000394 0.000262 0.004003 -0.000938 -0.001320 0.001148 0.004732 -0.001558 0.003330 -0.000882 -0.001728 0.001729 -0.000861 -0.003534 0.003070 0.001931 0.001459
33 -0.000822 -0.003829 0.001442 0.003766 0.003562 -0.004569 -0.000076 0.004124 0.002314 -0.000254 0.001271 0.000872 0.000871 -0.003963 0.002994 0.000685 -0.001371 0.001724 -0.002855 -0.000044 0.004376 -0.000376 0.003881 -0.002911 -0.002580 -0.000373 -0.002423 0.000312 0.002301 0.002238 -0.000860 0.003947 -0.000750 0.003742 -0.004421 -0.003423 0.001060 0.000411 -0.003567 0.002606 -0.002601 0.002166 0.003040 -0.001383 -0.002311 0.002235 -0.000761 -0.003351 -0.003074 0.000044 -0.001690 0.004440 0.002566 -0.001097 -0.005072 0.001017 -0.002518 0.001551 0.002483 0.002301 0.004836 -0.005230 -0.002938 0.002811 0.002669 -0.003690 0.003173 -0.002099 0.001426 0.001621 0.003131 -0.000633 0.001194 0.001650 -0.001679 0.002475 0.001875 -0.000126 0.001077 -0.000507 0.003267 -0.003192 -0.001430 -0.003748 0.000026 0.003854 -0.000983 -0.000369 0.000197 0.001173 0.003711 0.003290 0.000155 -0.002031 0.002577 0.004532 -0.003221 -0.003667 0.003604 -0.001594 -0.003855 -0.001873 -0.002377 0.003504 0.001109 -0.002539 0.002569 0.001503 0.002005 -0.002157 -0.000861 0.000586 0.000916 -0.002510 0.001288 0.000623 -0.000234 -0.001981 -0.003789 -0.003517 0.001433 -0.001018 0.002665 -0.000391 0.000927 -0.001016 -0.002736 -0.001730
3 -0.003905 -0.000187 0.004130 0.000760 0.001406 -0.001059 0.002591 0.000132 -0.003733 -0.001359 0.001098 -0.002386 -0.003491 -0.004499 -0.001882 -0.003550 0.003591 -0.003501 -0.000287 -0.001986 -0.002328 0.001403 -0.000285 0.003805 0.003650 -0.001722 -0.000069 0.002999 0.004085 0.003924 -0.002203 -0.001925 -0.003755 0.003704 -0.001604 -0.003494 0.002049 0.002806 0.001348 0.001626 -0.000064 -0.003616 0.001590 0.003903 -0.002349 -0.000502 0.002823 -0.002943 -0.003991 0.003187 0.003001 -0.000718 -0.003576 0.001522 -0.003278 -0.002799 -0.002204 0.001366 -0.002221 0.003525 -0.002996 0.000998 -0.001405 0.004246 -0.000071 -0.003123 0.003193 0.002577 0.000894 -0.003647 0.002246 0.000745 -0.002408 0.002521 0.001959 -0.001747 0.003990 -0.000831 0.003589 -0.000986 -0.000741 0.001794 -0.001226 -0.002898 0.001144 0.002396 -0.000123 0.001184 -0.002396 -0.001024 -0.001396 0.002242 -0.000861 0.000405 -0.003689 0.003242 -0.003941 0.002795 0.003595 0.000044 -0.004123 0.001452 -0.003929 -0.001403 0.001615 0.004352 0.000501 -0.000152 0.002738 -0.002194 0.002499 -0.000068 0.000780 0.001103 0.000541 0.001863 -0.001022 0.003097 0.002716 0.000214 -0.002182 -0.003854 -0.001432 -0.001758 -0.002990 0.000971 0.001052 0.002072
2 0.002398 -0.001849 0.000007 -0.000796 -0.000637 -0.000931 0.002231 0.002637 -0.003374 -0.000389 -0.001895 0.002783 0.002485 -0.003513 -0.000830 -0.004088 -0.002112 0.001097 -0.000123 -0.000026 0.001990 0.000695 0.003728 -0.000282 -0.002953 -0.000963 -0.001831 0.000764 0.002825 0.002007 0.002574 -0.000987 -0.003653 0.003420 -0.004172 0.001603 0.001879 -0.002258 0.001649 -0.001729 0.000672 0.002898 0.002642 0.000213 -0.003095 -0.000414 -0.001802 -0.001642 0.001350 -0.001390 0.000275 -0.002229 0.001928 0.004421 -0.005079 -0.000568 0.002028 0.003729 -0.002732 0.003500 -0.001396 0.000875 -0.001041 -0.001887 -0.001426 0.002368 -0.001388 -0.001505 -0.003617 -0.002484 -0.001330 -0.000824 0.003049 -0.000607 -0.000919 0.002420 0.001990 -0.001447 0.000932 -0.001232 -0.002519 -0.003229 -0.003243 -0.000682 0.002083 0.004156 -0.000472 -0.000448 0.003339 -0.002577 0.002251 0.003313 0.000389 -0.004070 -0.004162 0.001922 -0.002202 -0.002413 -0.002100 0.002507 0.001635 -0.001508 0.000933 -0.004055 -0.000583 -0.002679 0.005108 0.003919 -0.002921 0.000390 -0.002620 0.001634 0.001657 -0.001032 -0.003292 -0.000827 0.000902 0.002759 -0.003464 -0.001498 -0.001566 -0.002468 0.001296 -0.004848 0.001055 0.002058 0.003666 0.000885
32 -0.002546 -0.004438 -0.003041 0.000689 0.000870 -0.000918 0.003249 -0.000417 -0.001585 0.000939 -0.001860 0.002970 -0.000886 -0.000082 0.000202 0.001013 0.000891 -0.002375 -0.003345 0.000752 0.001398 0.002562 -0.001983 -0.002062 -0.003175 -0.001363 -0.001811 0.003911 0.001690 -0.001592 -0.001355 0.000258 0.003408 0.002477 -0.003221 -0.000376 0.004722 0.004439 -0.000805 -0.003104 -0.004136 0.002041 0.000639 0.000297 -0.004113 -0.000806 0.003422 0.001024 -0.000733 -0.002771 -0.000931 0.002571 -0.000978 0.002630 -0.004321 -0.003155 -0.002023 -0.000003 -0.000585 -0.001245 0.002191 -0.000980 -0.003623 0.004616 -0.003610 -0.002006 -0.003241 0.002562 0.000520 -0.004784 -0.003463 0.002880 0.001002 -0.001675 -0.001486 0.002361 0.001595 0.001038 -0.000578 -0.000172 -0.001557 -0.002990 0.003146 -0.001135 -0.000592 0.004750 0.002086 0.000791 0.001225 -0.002629 0.001582 0.003107 0.002584 -0.002790 0.001053 0.001019 -0.000379 -0.001572 -0.003355 -0.004165 0.000782 -0.001861 -0.004196 -0.002530 0.002064 0.004525 0.004573 -0.001984 -0.003760 0.001332 0.000906 -0.002306 0.002199 0.003546 0.002440 0.002314 -0.000823 0.004725 0.002646 -0.001707 -0.001774 -0.004589 -0.000139 0.000223 0.002432 -0.003079 -0.003934 0.003520
24 0.001806 0.000739 0.003375 0.003853 0.001456 -0.001563 0.000152 0.001031 0.001275 0.001460 0.002895 0.000199 0.003095 -0.003803 -0.000387 -0.002576 -0.001388 -0.001334 0.001231 -0.000800 0.001578 0.000976 0.000884 0.003388 0.001293 0.002810 -0.001023 -0.002305 -0.000466 0.002767 -0.003437 0.000911 -0.003961 -0.001196 0.000727 -0.001385 0.004827 -0.001710 -0.000304 -0.002739 0.000334 0.003793 0.000513 0.002429 -0.001130 0.001806 -0.002340 0.002833 0.001069 -0.002016 0.003406 0.001705 -0.003150 0.004034 0.002360 0.002868 0.002809 0.000726 -0.001269 -0.001663 0.000352 -0.001224 0.000862 0.000979 -0.003243 -0.002603 -0.001487 0.001924 -0.001303 0.001692 0.001052 0.002153 -0.003339 0.000393 0.000723 -0.000429 -0.002876 -0.002543 -0.000596 0.003415 0.002962 0.001853 0.000771 0.001876 -0.001783 -0.002236 -0.002243 0.003776 0.002052 0.001421 -0.001208 0.001241 0.001500 -0.001755 0.001495 0.004311 0.002114 0.000832 -0.000909 -0.001476 -0.003104 0.004050 0.002397 0.001977 -0.002196 0.003135 0.001403 0.001117 0.000288 0.001851 0.003651 -0.002143 0.000198 0.000972 -0.003943 -0.001159 -0.001187 -0.000753 0.002006 0.002734 0.000744 -0.003600 0.000742 -0.002879 0.002982 0.001937 0.000228 0.003181
4 -0.000767 0.002501 0.000706 0.001814 0.002782 -0.003665 -0.002854 0.004207 0.000669 -0.002161 0.002863 0.001636 0.003089 -0.002072 -0.001260 -0.002061 0.000748 -0.003299 0.001611 0.002595 0.002448 -0.000927 -0.001572 -0.001331 0.001930 0.000706 -0.002577 0.002329 0.003589 -0.001031 -0.002169 -0.002142 -0.001007 -0.000205 -0.002420 -0.001812 0.003647 0.002869 0.001566 0.001427 0.000278 -0.003107 0.004055 0.004347 0.000956 -0.002914 -0.000685 -0.003655 -0.002707 -0.001935 0.002354 -0.002196 0.001028 0.002043 -0.003137 0.000889 0.001566 0.000896 0.001142 -0.001663 0.004526 -0.003083 0.001094 0.001262 0.002268 0.002965 -0.004205 0.001792 -0.000238 -0.002275 0.000229 0.001210 0.002597 -0.003624 0.002620 -0.001334 0.004137 0.002357 -0.001613 0.002950 0.000747 -0.004912 -0.000803 -0.000069 0.001669 0.000146 0.004100 -0.002210 0.002819 0.001219 -0.002497 -0.000474 -0.003202 -0.001584 -0.001772 0.002235 -0.003907 -0.002412 0.000755 -0.000410 -0.003618 0.001633 0.003118 0.002983 -0.003340 0.002486 -0.001317 0.001840 -0.001786 -0.001423 0.003305 -0.001182 0.000376 0.001587 -0.000537 0.002636 -0.000360 0.002570 -0.001198 -0.000286 0.001619 0.000413 -0.003641 -0.005215 -0.004214 0.001347 0.003427 0.002994
28 -0.003636 -0.003506 0.004365 0.000551 0.000276 0.002366 0.000955 -0.000821 -0.002612 -0.000199 0.001018 0.003264 -0.000104 0.001995 -0.002332 -0.001190 -0.000902 -0.002728 0.002397 0.001991 -0.002690 -0.000321 0.000301 -0.001039 -0.001923 0.002569 -0.003384 0.001521 0.003557 -0.000078 -0.000924 0.003560 0.001786 0.003408 -0.000126 -0.003755 0.003357 0.001896 0.001464 0.000488 -0.002199 -0.002626 0.002884 0.003318 -0.003720 -0.002198 -0.003451 -0.001094 -0.003576 -0.001979 -0.004031 0.001283 0.002326 -0.002140 0.002645 -0.000677 -0.003201 -0.002780 -0.003983 0.000120 0.000501 -0.003019 0.002288 0.002840 0.000894 -0.001657 -0.001387 0.003362 -0.003182 -0.004531 -0.001658 0.003031 -0.003080 -0.003429 -0.000476 0.001082 -0.000230 0.003169 -0.003648 0.002943 -0.000161 -0.004520 0.001874 0.000069 -0.000902 0.004520 0.001017 0.002891 0.000323 0.001443 0.001372 0.000484 -0.002022 -0.003416 0.002598 -0.000707 -0.000620 0.001803 -0.000146 -0.003284 -0.002987 0.004004 -0.003941 -0.001777 0.001902 0.003893 0.004288 0.003754 0.000937 -0.003694 0.001610 0.001137 -0.002741 -0.000297 0.000879 -0.002347 -0.002977 -0.000297 -0.001515 -0.002247 0.000142 -0.001913 0.000341 0.001814 -0.003155 -0.003330 0.000838 0.002421
14 -0.001859 -0.002704 0.004025 -0.003012 0.002172 0.000955 -0.001985 -0.001172 -0.002090 0.002062 -0.004023 0.001871 -0.001244 -0.000614 0.000003 0.000963 0.002188 -0.000344 0.001080 -0.002208 0.002929 0.003744 0.000123 0.002213 -0.001229 0.001865 0.002896 0.003985 -0.003420 0.003135 0.001868 0.001275 -0.001468 0.002989 0.002205 -0.001566 -0.001050 0.000138 -0.001154 -0.000392 -0.003641 0.000269 0.002040 0.002681 -0.000492 0.001064 0.001159 0.002144 0.000021 0.003880 -0.001618 0.000160 -0.001035 0.002416 -0.000238 -0.001603 -0.003260 0.003841 -0.002824 -0.002015 -0.000080 -0.003275 0.002225 -0.003033 -0.002930 0.002203 0.002043 -0.002562 -0.000590 -0.002245 -0.002901 0.002640 -0.002943 0.003649 0.003213 0.001770 0.001566 -0.000597 -0.000573 -0.003364 -0.002040 0.000095 0.002457 0.003327 -0.003014 0.003602 -0.001407 -0.001399 0.002203 -0.000892 -0.000892 -0.000831 0.000151 -0.001072 -0.002162 0.004071 -0.002788 0.003140 0.003100 0.000691 -0.003340 0.000343 -0.000633 0.001999 -0.003298 0.002560 0.003921 0.003679 -0.003737 -0.000964 -0.003444 -0.002924 -0.002195 0.001892 0.003199 -0.001251 -0.002605 -0.000521 -0.001417 0.001270 -0.000059 -0.002194 -0.000623 -0.003450 0.001666 -0.001357 -0.002110 0.000354
30 0.003100 -0.003573 -0.003086 0.003835 -0.003586 0.001090 0.002935 -0.001668 -0.000417 0.001807 -0.004017 0.000053 -0.001129 -0.001967 -0.001808 -0.002738 0.001119 -0.000604 -0.003684 0.003648 0.001213 -0.002082 0.003943 -0.003752 0.001451 -0.002199 0.002792 -0.000167 -0.003236 0.002008 -0.000613 -0.002369 0.000910 -0.001763 -0.002473 0.002874 0.000549 0.002858 0.000994 -0.003523 -0.000064 0.001481 0.001370 0.003516 0.000173 0.000721 0.000208 -0.003136 -0.000676 0.001667 -0.000574 0.002630 0.002046 -0.003677 0.001998 0.001108 -0.003912 0.001287 0.002172 0.000444 0.001138 -0.003340 0.003008 0.001066 0.003657 -0.002211 -0.002121 -0.001359 0.001857 -0.002668 0.001431 0.000453 0.000037 -0.000135 0.000511 -0.002088 0.000366 0.003386 0.000116 0.003142 -0.003984 -0.002241 -0.003512 -0.000973 0.000622 0.003134 -0.002923 0.001482 -0.002212 0.001143 0.003062 -0.003323 0.000545 0.001982 0.003265 0.001469 -0.002621 0.003013 0.000775 -0.002340 0.003534 0.001052 -0.001990 -0.003898 -0.001256 -0.000862 0.002063 0.001230 -0.003724 -0.000667 -0.002229 -0.003880 -0.002468 -0.002329 0.003311 -0.001746 -0.003100 -0.000818 -0.001502 0.003708 -0.003082 0.001209 0.000303 0.001648 0.002593 0.002097 0.003751 0.000876
6 0.000444 -0.002203 0.001553 0.003898 0.000900 0.000149 0.002549 0.002846 -0.000306 0.000487 0.000666 -0.000059 -0.000738 -0.002812 0.002021 -0.001059 -0.001120 -0.003580 0.002203 -0.002324 -0.000158 -0.002582 -0.000157 -0.003255 0.002879 -0.002357 0.001188 -0.003368 0.000664 0.003847 0.000377 -0.002480 0.001665 -0.000535 0.000429 -0.000445 0.002146 0.003900 -0.003513 -0.004387 -0.002825 0.002434 0.004568 -0.001519 -0.004349 0.001522 0.002742 -0.003989 0.003552 0.003580 -0.000634 0.003048 -0.003225 0.001041 0.001704 -0.002583 -0.000540 -0.001473 0.002092 -0.003618 0.004654 0.001282 -0.000289 0.001049 0.000131 -0.003797 -0.003444 0.000351 -0.002572 -0.003632 0.001831 -0.000755 -0.002351 0.003462 0.002909 -0.000594 0.002358 0.003800 -0.000984 0.001096 -0.003794 0.001829 0.002128 0.000183 0.003223 -0.002851 0.003291 -0.001469 -0.000994 0.000232 0.002873 0.001657 0.002182 0.002143 -0.000478 0.001914 0.000709 -0.004415 0.002795 -0.002116 0.001948 -0.000974 -0.000405 0.000099 -0.002754 0.003243 0.000325 0.003955 0.001966 -0.001535 0.002968 0.001789 -0.000659 0.002638 0.000322 0.003428 0.001421 -0.001010 -0.000354 -0.000964 0.000545 -0.002575 0.002714 -0.005163 -0.003947 0.001387 0.003775 -0.002996
9 -0.001678 -0.000515 -0.002765 -0.000712 0.000430 -0.000831 0.000050 0.002154 0.003873 -0.000543 0.000193 0.003673 0.000787 -0.004338 -0.001289 -0.001864 -0.001865 0.001887 -0.001594 0.001516 -0.002667 0.003121 0.004554 -0.003618 -0.001477 0.002277 -0.001587 -0.003564 -0.000735 0.002277 0.001075 0.003815 -0.002358 -0.002138 0.003002 -0.002608 0.004087 0.000361 -0.003471 0.002303 -0.004270 -0.003268 0.002179 0.003822 -0.003302 -0.001865 0.000427 -0.002553 -0.001883 -0.003238 -0.002900 0.001665 -0.002281 0.001410 0.002447 -0.001584 -0.001951 0.000038 -0.001175 -0.002323 0.000915 -0.001194 -0.003272 0.002342 0.001876 -0.002211 0.001396 -0.000048 -0.001341 -0.000387 0.001393 0.003012 0.003410 -0.001573 0.003509 -0.002024 -0.002181 0.003888 -0.003007 0.002194 0.002315 -0.001897 -0.003340 -0.004748 -0.001757 0.000330 0.000460 0.000178 -0.002178 0.001473 0.002239 -0.001075 0.004105 0.003433 -0.001023 -0.003061 0.001660 -0.000237 0.000099 0.001488 -0.004079 -0.002610 -0.003537 0.000633 0.000589 0.000514 -0.000868 0.003560 -0.004036 -0.003189 0.003008 0.000343 0.003420 -0.000946 -0.000453 -0.002290 -0.003362 0.004217 -0.002063 0.002652 -0.001859 -0.002494 -0.001578 -0.000052 -0.002626 0.003542 0.000161 0.002086
7 0.002941 -0.001021 -0.002688 -0.000548 -0.002540 0.001349 0.001400 0.001465 0.003798 -0.000731 -0.002437 0.001425 0.001334 -0.005018 0.002655 -0.000618 0.000786 -0.001374 -0.002295 -0.000446 0.002289 -0.002063 0.001415 0.002976 0.003246 -0.003031 -0.003702 -0.001716 -0.002051 -0.000796 0.002474 0.003752 -0.002968 -0.003149 -0.003395 -0.001060 -0.000786 -0.002855 -0.001244 -0.002765 -0.004779 0.001587 0.002410 0.003288 -0.000809 0.002437 0.001672 -0.000555 0.002922 0.001377 -0.002886 0.003912 0.000202 0.004233 -0.003979 0.001613 0.000173 -0.002025 0.002342 0.003508 0.002299 -0.000928 0.000409 0.002990 -0.001457 0.000748 0.000751 0.003732 0.000415 -0.003892 -0.001762 0.002572 -0.003216 0.001428 0.001861 0.000968 -0.000280 0.002158 0.000147 -0.002821 -0.000048 0.002127 -0.000896 0.002448 -0.001800 -0.001895 -0.002601 0.000767 -0.001883 0.002365 0.003983 0.000135 0.003399 -0.001125 -0.001324 0.003678 0.002140 -0.004129 -0.002438 0.000273 -0.002644 0.002062 -0.004275 -0.001260 -0.001402 -0.002625 -0.001848 0.000713 0.003187 0.000302 0.001713 0.003685 -0.001613 -0.002440 -0.002897 -0.000608 -0.001000 -0.001001 -0.003877 0.003328 -0.002155 0.002554 0.003191 -0.000408 -0.003097 -0.001818 0.003349 0.003949
25 -0.003306 -0.002570 -0.001814 -0.001105 -0.003067 -0.002017 -0.001472 -0.002545 0.003850 -0.000380 -0.002116 -0.001543 0.000503 0.002052 -0.000999 -0.004408 0.002019 -0.002856 0.002565 0.003775 0.004127 -0.001240 0.003691 0.002580 0.001052 -0.003549 0.001068 -0.000968 -0.003523 0.002626 0.001774 0.000862 0.000400 -0.003230 -0.004327 0.000921 -0.001830 0.003642 -0.002282 -0.002524 -0.004244 0.002497 -0.001298 -0.002268 0.001604 0.003998 0.001852 0.002896 0.002652 0.000655 -0.004212 0.003660 0.002285 0.002209 -0.004463 -0.001863 0.002331 -0.003538 -0.001364 0.003068 -0.000857 0.001302 0.001541 -0.000672 -0.003472 -0.002556 -0.001358 0.001863 -0.003641 -0.000363 -0.000902 -0.002346 0.001880 0.002479 -0.000603 -0.003677 -0.003190 0.002419 0.002087 -0.001589 -0.000319 -0.003250 0.000029 -0.004212 -0.001157 0.000192 -0.000029 -0.003736 -0.003493 -0.003625 -0.002131 -0.000780 0.003689 -0.002845 -0.001739 0.002120 -0.000396 -0.000685 0.001076 0.001108 -0.004183 0.002178 -0.003858 0.000828 0.001591 -0.000725 0.002310 0.002013 0.002171 -0.001738 -0.001689 0.000020 0.001604 -0.001471 -0.004335 -0.001250 0.002208 0.000502 -0.001091 -0.001450 0.000670 0.002812 -0.001142 -0.003630 -0.002143 0.004221 -0.003462 0.000423
5 0.000107 -0.004260 -0.003457 0.000059 0.003249 -0.001936 0.003798 -0.003077 0.003800 -0.002644 0.002578 0.003422 -0.002513 0.000281 0.001947 -0.004163 -0.002004 -0.003690 -0.000899 0.002134 0.002863 0.003071 -0.002949 0.003943 0.001420 -0.002848 -0.000631 -0.003061 -0.000937 -0.000531 -0.002363 -0.000920 -0.002502 0.001660 0.001864 -0.003357 0.001732 0.001957 -0.000867 -0.000139 0.002670 -0.000547 -0.001448 0.000363 -0.002923 0.000522 0.000723 -0.001208 -0.000122 -0.001537 -0.001168 0.003773 0.003334 -0.002999 0.001525 -0.002629 0.001997 -0.001017 0.002259 -0.003766 -0.000910 -0.003170 0.002025 0.003357 -0.003136 0.000038 0.002797 -0.000769 0.001401 -0.003401 -0.002039 0.000518 -0.002552 -0.003269 0.001327 -0.003044 -0.001858 -0.002951 -0.003221 -0.003513 -0.003013 -0.000350 -0.001474 -0.000799 -0.002590 -0.003198 0.002504 0.003477 0.001885 0.000047 0.003109 -0.001153 0.001882 0.001031 -0.003144 0.001614 -0.003591 -0.002831 0.003684 0.003552 -0.004574 0.000561 -0.002402 -0.003913 -0.003788 -0.000813 0.002084 0.000222 -0.003304 -0.001395 -0.002284 0.000169 0.001269 -0.002413 -0.002646 0.003304 0.003390 0.001443 0.002850 0.001355 -0.000601 0.001221 0.000846 -0.004563 -0.003693 0.002197 -0.001778 0.004247
31 0.001561 0.000710 0.003158 0.002555 -0.000718 -0.003573 -0.000500 -0.003512 -0.003425 0.000949 0.002861 0.004077 0.003595 -0.003624 -0.000076 -0.003793 -0.003788 0.001387 0.001688 -0.000058 0.001149 -0.001631 -0.002397 0.002942 0.001273 0.001027 0.002345 0.003711 0.000102 0.000319 -0.002536 0.003866 -0.003751 0.002941 0.001980 0.002765 -0.000484 -0.000469 0.003487 -0.003976 0.000237 0.002528 0.000467 -0.001547 -0.001724 -0.000054 -0.002621 -0.003190 -0.001196 0.002078 -0.003506 0.003226 0.000369 -0.001515 0.000619 -0.002138 0.001258 -0.001879 -0.003902 -0.003509 0.003389 -0.001476 -0.003448 -0.002960 -0.002805 -0.001712 -0.003963 -0.002004 -0.002197 -0.000456 -0.000024 -0.002172 0.000267 0.000038 0.002325 -0.000044 0.003898 -0.000832 0.003483 0.002055 0.001305 -0.001923 -0.002164 -0.002354 0.001202 0.000432 -0.003087 -0.002335 0.000356 -0.002824 -0.003694 0.003355 0.003599 -0.001102 -0.004021 0.000663 -0.002935 -0.000311 -0.000548 0.002929 -0.004137 0.000172 -0.000127 -0.003484 -0.001852 0.001025 0.001891 0.002602 0.001716 0.000320 -0.002896 -0.003825 -0.002163 -0.002556 0.001150 0.002694 -0.003270 0.003907 -0.003863 0.002338 -0.002450 -0.002346 -0.002175 -0.003916 -0.000884 0.002387 -0.003669 0.000168
26 0.002935 0.001749 0.001033 -0.001187 0.001859 -0.002555 0.002060 -0.001507 -0.003806 -0.001683 -0.001627 -0.003030 0.003548 -0.003180 -0.001279 0.002155 0.001538 -0.000466 -0.001198 0.001604 0.003931 0.000806 0.003626 0.002004 -0.001932 -0.001826 -0.003759 -0.002290 -0.001886 0.003302 0.002018 0.000965 0.001097 -0.003488 -0.003899 -0.003336 0.002308 -0.001086 -0.001500 -0.001421 -0.000786 -0.003134 -0.002674 -0.000787 -0.002024 0.004110 -0.003245 -0.000144 -0.001659 0.003139 0.003114 0.002543 -0.001559 -0.002792 -0.000273 -0.000891 0.001419 0.001104 -0.003415 0.000513 0.002119 -0.002078 0.000419 0.003863 0.000548 0.000013 0.001536 -0.003167 0.000887 0.000394 0.000324 0.000614 -0.002317 -0.000832 0.002319 -0.002893 -0.003688 0.000147 -0.001172 -0.001406 -0.002995 0.001590 0.001104 0.000909 0.001961 0.002769 -0.003364 0.000572 -0.000385 -0.000265 0.001320 0.000465 0.003025 0.003633 0.002526 -0.001417 -0.001128 0.000979 0.002956 -0.002244 0.000890 0.000070 0.000355 0.002513 0.001445 0.001996 0.003224 0.001030 0.003711 0.003339 -0.002972 -0.001723 0.000864 0.003067 0.001025 -0.000149 0.001071 -0.001745 0.003680 -0.003984 -0.000335 -0.002789 -0.002234 -0.003959 0.000918 0.003138 -0.001900 -0.003325
11 -0.003720 -0.003619 0.002000 0.001533 0.002465 -0.002523 -0.002310 0.003650 0.002821 -0.003131 -0.001179 0.001488 -0.001703 0.001453 0.003489 -0.004243 -0.001498 -0.001491 0.000821 -0.002836 0.003525 -0.001204 0.003118 0.000550 -0.001098 -0.002321 -0.001865 0.000572 -0.002345 -0.002371 0.001854 -0.000079 0.001926 -0.003468 0.001300 0.002890 0.004648 0.003028 0.000172 0.003124 0.001554 0.002949 0.004456 0.000472 -0.001953 0.002438 0.003207 0.002254 -0.001520 0.002167 0.001186 0.001680 0.000191 0.000550 -0.001156 -0.003170 0.000531 0.002845 -0.004099 0.000967 0.000544 -0.003265 0.003305 0.003504 -0.003141 0.000601 -0.004243 -0.000752 0.002524 -0.004170 0.000199 -0.000464 -0.002796 -0.001338 0.004115 0.001086 0.001563 -0.002450 -0.002682 -0.001348 0.001047 0.002559 -0.000733 -0.002123 -0.003800 0.000393 0.004072 0.000227 0.001789 0.000736 -0.001150 -0.002598 0.001579 0.002683 0.001252 -0.001561 0.001482 -0.001089 -0.000870 0.003021 0.002576 0.004106 -0.001886 0.000681 -0.001553 -0.000055 0.002922 -0.002600 0.001476 -0.002757 -0.000148 0.003217 -0.003794 -0.001616 -0.000760 -0.001870 -0.002841 0.003018 -0.001464 -0.002276 0.000909 -0.003065 0.003686 -0.004729 -0.001814 -0.003283 -0.002383 0.000861
20 -0.000674 -0.001746 0.000191 0.000892 -0.002707 -0.003852 0.003557 0.001915 -0.002822 -0.001547 -0.002404 -0.002553 0.003999 -0.000706 -0.001478 -0.001042 -0.002949 0.001173 -0.001210 -0.003033 0.002370 -0.001773 0.002851 0.000326 0.001491 0.002835 0.003821 -0.000890 0.001297 -0.003071 -0.003013 -0.001127 0.000970 -0.000878 0.002460 0.001627 0.003867 -0.002757 -0.002606 -0.004025 -0.003716 -0.002096 -0.002294 0.000313 0.001698 -0.000043 0.003278 0.000192 0.001079 -0.002637 -0.003764 0.000457 0.002515 -0.003386 -0.000975 0.000552 0.000258 -0.003629 -0.003287 0.002235 0.004074 0.001355 0.001225 0.001428 -0.000695 -0.000858 0.000105 0.002438 -0.002848 0.002800 -0.002133 0.001529 -0.001771 -0.000457 -0.000197 0.002140 0.001854 -0.000819 0.001297 0.002607 0.000864 -0.003611 -0.000381 -0.003777 0.002430 0.003881 -0.002835 0.001397 -0.002355 0.001845 0.002495 0.000508 0.000553 -0.001065 0.001197 -0.000087 0.001949 -0.000773 -0.002707 0.003319 -0.002441 -0.002848 -0.003491 0.003287 -0.000568 0.002620 -0.000454 0.000630 0.003076 0.002854 -0.001958 0.002355 0.000547 0.001871 -0.002395 -0.001896 0.003045 0.002249 0.000265 0.000745 -0.000611 0.003642 -0.000164 -0.003232 0.001246 0.002150 -0.002786 0.001221
8 0.000302 -0.003986 0.002413 0.000940 -0.002317 0.000922 0.002182 0.000964 -0.000182 0.002904 -0.001984 0.000244 -0.002269 -0.000360 0.002937 -0.002975 0.002200 -0.000218 0.003917 0.002497 -0.000742 -0.000184 -0.000266 -0.003526 0.001187 0.003820 -0.000230 0.002866 -0.001587 0.002603 -0.001054 0.000644 0.000693 0.002438 -0.001509 -0.001517 0.003834 -0.000689 0.003340 0.003409 -0.001499 0.000195 -0.002348 0.003208 0.000714 0.002869 -0.002458 -0.000765 -0.001590 0.002347 -0.002239 -0.001942 0.003930 0.002714 -0.003404 -0.000143 -0.003676 -0.001066 -0.002140 -0.002335 -0.001954 -0.003633 0.000612 0.001558 0.001767 -0.003006 0.002928 -0.001470 -0.000305 -0.003177 -0.002972 -0.001573 -0.002136 -0.000112 -0.000435 0.001169 -0.002240 -0.000740 -0.000598 -0.000423 0.002068 -0.003791 -0.002366 0.001397 -0.003444 0.004076 0.002828 0.000821 0.001118 -0.002658 0.001927 -0.002316 -0.000484 -0.000395 -0.001423 -0.002398 -0.001461 -0.003708 -0.002337 -0.003216 0.002491 -0.002979 -0.004052 -0.001401 0.002892 -0.002793 0.002458 -0.003704 -0.001801 -0.002394 -0.003726 0.001856 0.002007 -0.000014 -0.003968 0.003107 -0.001642 -0.000686 -0.002341 -0.000230 -0.002187 -0.003465 0.003166 0.000219 0.001689 -0.003486 0.002611 -0.002175
29 -0.001344 -0.001095 -0.001800 -0.001275 0.002008 -0.002968 0.000392 -0.002945 0.000146 0.001417 0.001053 0.004109 -0.001586 -0.002111 -0.000094 -0.003041 -0.003655 -0.004225 0.002353 -0.000195 0.002955 -0.001896 -0.002652 -0.001030 -0.002952 -0.001944 -0.000361 -0.001752 0.003061 0.002712 0.002663 -0.000619 0.002220 -0.000400 -0.003500 0.000506 0.004625 0.001942 0.001852 -0.004215 0.002587 0.002667 -0.003059 -0.003088 0.001677 0.004150 -0.001445 -0.001005 -0.002471 0.000750 -0.001536 0.000039 -0.002027 0.000570 -0.004760 0.003554 0.003582 0.002769 0.001188 0.001491 0.002028 -0.004193 -0.002840 0.000808 -0.003311 -0.002883 -0.004144 -0.001277 0.002372 0.002791 -0.003164 -0.000176 -0.003388 0.002334 0.001217 0.003409 0.003560 0.000809 0.001175 -0.000133 -0.003880 0.001643 0.002441 -0.003810 0.000708 0.001827 0.002705 -0.003354 0.000251 -0.003638 0.001361 -0.002622 -0.000315 0.001161 0.003398 0.003886 -0.003213 0.002818 -0.000223 -0.003636 -0.003086 0.003226 -0.001606 0.000604 0.001198 0.000645 -0.001984 -0.002603 0.001005 0.001495 0.002319 0.000619 -0.003147 -0.001593 -0.003406 -0.003445 -0.001924 -0.002292 0.002743 -0.000635 -0.001489 -0.001291 -0.002682 -0.003327 0.002597 0.002490 -0.001708 -0.002855
23 0.000556 0.002612 -0.003553 0.001271 -0.000499 0.002461 -0.000822 0.003273 0.001762 -0.001582 -0.001757 0.000526 0.000834 -0.003050 -0.002878 0.002013 -0.000494 0.002741 0.001802 0.003749 -0.001017 -0.001525 -0.003060 0.002593 0.000894 -0.000729 -0.003321 -0.002977 -0.003462 0.002351 -0.000632 0.001205 -0.000784 -0.000179 -0.003499 -0.002467 0.001835 -0.002354 -0.002817 0.000412 -0.000909 0.000409 0.001707 0.001842 0.002155 -0.001490 -0.001451 0.003036 -0.002280 -0.000638 0.001012 -0.000865 0.002802 -0.003041 -0.000441 -0.003523 -0.002186 -0.000381 -0.000334 -0.003552 0.000618 -0.001868 0.002788 0.001070 0.002836 -0.000757 0.001998 0.003194 0.001243 0.002964 0.000242 0.000671 0.003785 0.000521 -0.003410 0.000426 0.002282 0.000886 0.003562 0.001653 0.003693 -0.002560 0.003080 -0.000799 -0.001489 0.003244 -0.001999 0.001215 -0.002623 -0.001608 0.001163 0.001307 -0.003148 -0.000302 -0.003943 -0.001974 0.001008 -0.001601 -0.001357 0.003480 -0.001368 -0.001072 0.002958 -0.003386 -0.000831 -0.003182 -0.002869 -0.001850 0.001908 0.001197 -0.003555 -0.002530 -0.001481 -0.002988 -0.001303 -0.001063 -0.002542 0.001716 0.000487 0.000287 0.001416 0.002566 -0.002415 -0.002507 0.002024 -0.002945 -0.000449 -0.000270
18 0.001140 -0.000081 -0.003042 -0.001010 0.001874 -0.001394 -0.003278 0.002059 0.002699 0.003898 -0.000980 0.002998 0.003259 -0.000666 0.000905 -0.003715 -0.001414 0.001320 -0.002818 0.003791 0.004192 -0.000566 0.004174 0.000564 0.003298 0.003349 0.000618 -0.000008 0.001874 0.001405 -0.000132 0.002582 0.001245 0.002447 0.001611 -0.002204 -0.000859 -0.000186 0.001150 0.003005 -0.001570 0.003797 -0.002879 -0.001062 -0.001102 0.002864 -0.003420 0.000194 0.001588 -0.001743 -0.000523 -0.002839 0.003195 0.003675 -0.000964 0.003333 0.000532 -0.003450 -0.001980 -0.001296 0.002145 -0.003976 -0.000041 -0.000353 0.003161 0.000612 0.000534 -0.001991 0.003237 0.003205 -0.002527 -0.000422 0.002719 -0.003754 0.003149 0.002241 0.003734 0.002336 0.001456 -0.000565 -0.003768 0.001862 0.002243 -0.003208 -0.003274 0.001734 0.002993 -0.000362 -0.002677 0.002940 0.000617 -0.002806 0.003231 -0.003201 -0.004087 0.001734 -0.002314 0.002723 0.001805 -0.002001 -0.001013 0.003000 -0.000210 0.000934 0.000416 0.000599 -0.002477 -0.003116 -0.001008 -0.003109 -0.002239 -0.002651 -0.002891 -0.001999 0.000322 -0.002466 -0.000120 -0.002703 0.002703 -0.001172 -0.000657 -0.003566 -0.000706 -0.001502 0.002024 -0.003627 -0.003046 -0.002164
27 0.002020 -0.004013 -0.002459 -0.003150 0.000719 0.001303 0.001714 0.003459 -0.002685 0.000878 -0.002040 -0.001635 -0.001125 0.003140 -0.000510 -0.002510 0.003527 -0.002404 0.000161 -0.003722 0.003150 0.001642 0.001569 0.003588 0.000333 -0.003268 -0.003574 0.003252 -0.001900 0.001515 0.000534 -0.002973 -0.001638 -0.002552 0.001997 -0.002494 -0.001731 -0.000353 -0.001377 -0.002924 -0.003096 0.000017 -0.000686 0.000911 0.001149 0.002881 0.003808 -0.000587 0.000241 0.002414 0.002474 0.002464 -0.002453 0.003463 -0.000945 -0.003083 -0.000761 0.001264 0.003203 0.001706 -0.002380 0.003578 -0.002119 -0.000169 0.000641 0.000078 -0.002734 0.002795 -0.000815 -0.000955 -0.003552 0.002922 0.000533 -0.003778 -0.002219 -0.003472 0.002487 -0.002583 -0.001813 0.000965 -0.002913 -0.000797 -0.000131 0.003254 -0.003625 0.000759 0.003691 -0.001374 -0.003854 0.000690 -0.002957 -0.003502 0.000987 0.000808 -0.002836 0.000412 0.000752 -0.002911 0.003002 -0.002931 -0.004062 0.000517 0.002785 -0.003664 0.002141 0.002065 0.003473 -0.002925 -0.002991 0.002398 0.001960 -0.000299 -0.000947 -0.001558 0.001735 -0.001829 -0.000331 0.001280 -0.002654 -0.000654 -0.002528 0.002864 0.001759 -0.003288 -0.002759 0.002291 0.001011 0.000332
15 -0.003647 -0.002447 0.002800 -0.003036 0.001006 0.003575 0.002005 -0.003489 0.000116 -0.001401 0.001466 -0.000242 0.000317 0.001406 0.001612 -0.001537 -0.002908 -0.002114 -0.002872 -0.003423 0.003392 0.001873 0.000451 0.001075 -0.003025 0.000111 -0.002418 -0.000128 0.000450 -0.002748 -0.002243 0.002131 0.003063 -0.000617 0.000336 -0.000015 -0.001576 -0.000020 0.003697 0.001359 -0.002846 0.000060 -0.000652 0.000376 0.002579 0.003559 -0.003747 -0.000719 -0.000853 -0.001570 -0.000454 0.000331 -0.000512 0.001877 -0.002866 -0.003795 -0.003950 -0.003588 0.000956 0.002833 0.003428 0.003084 0.000568 -0.003198 0.001181 0.003452 0.000960 -0.000653 0.003169 0.002862 0.001999 -0.002007 0.001812 -0.003476 -0.002349 -0.001071 0.001788 0.000167 -0.003917 -0.003170 0.000120 0.002330 0.000278 -0.003051 -0.003017 -0.002555 -0.001360 -0.003599 0.000145 0.002418 0.001676 0.002252 0.003174 -0.002366 -0.003495 0.002422 0.001513 0.003647 0.001503 0.003294 0.002771 -0.000268 -0.002935 0.001118 0.002273 -0.003023 0.002452 0.001310 -0.000326 -0.003705 0.000371 -0.000871 -0.001565 -0.002905 -0.002514 0.003147 0.001914 0.004084 -0.003269 0.002781 0.002641 -0.003219 0.003599 0.002548 -0.003925 0.000410 0.001867 0.002332
17 -0.000881 -0.001740 0.001234 0.002669 -0.003467 -0.003373 0.002598 0.002277 0.003811 0.003231 0.001020 0.004381 0.002178 0.001655 -0.002175 0.002199 0.000045 -0.004346 -0.001673 0.002474 0.000580 -0.003637 0.003296 -0.002527 0.003049 0.002257 -0.001185 0.000064 0.002031 0.003280 0.000798 0.000635 0.001860 -0.000699 -0.002288 -0.003595 0.003291 0.002098 -0.000769 0.001741 -0.001697 -0.003390 -0.001582 0.003224 -0.002240 -0.001698 0.001609 0.002143 -0.000656 0.002024 -0.002394 -0.001425 0.000741 -0.003346 0.001455 -0.001776 -0.003830 0.003929 0.002362 -0.003623 0.001597 -0.001995 0.001662 -0.001108 0.000507 0.002399 -0.000799 -0.000699 0.000745 0.001202 -0.002908 -0.000759 0.000437 -0.002314 0.003100 0.003741 -0.002228 -0.002202 0.000993 -0.003456 0.000975 -0.000587 0.003285 0.002434 -0.003763 0.000518 0.003477 -0.001956 0.003964 -0.000910 -0.002785 -0.000234 -0.000522 0.003142 -0.001533 -0.000030 0.003062 0.001286 0.002679 0.002341 0.001213 -0.000219 -0.002469 0.001817 0.000126 -0.001041 0.001333 -0.002337 -0.002284 0.002910 -0.000119 0.000763 0.003755 0.001991 0.000020 -0.000277 -0.001148 0.004198 -0.001063 -0.003666 0.002900 0.002656 0.002119 0.001477 -0.004138 -0.001691 -0.000192 0.003184
16 -0.000710 0.000698 0.001192 0.000295 -0.000745 -0.000828 0.002849 -0.000826 0.000142 0.000684 -0.002761 0.001957 -0.001490 0.002639 0.002959 -0.002707 -0.003678 -0.004324 -0.003677 -0.003270 0.000014 0.001190 0.002954 -0.001390 0.001368 0.000325 0.001203 -0.000335 -0.001197 -0.003354 -0.002835 0.002253 -0.001277 -0.003568 0.001246 0.001468 0.004297 -0.002671 -0.002288 -0.004053 -0.002858 0.003483 0.002830 0.000617 0.001582 -0.001265 0.002343 0.002521 -0.002880 0.004074 0.002687 0.001364 0.000893 0.002050 0.001026 -0.000007 -0.000455 0.000771 0.000372 -0.003481 0.002673 -0.004358 -0.001572 -0.003228 0.001667 -0.001410 -0.000346 0.003329 -0.001508 -0.003517 0.002782 -0.003828 0.001051 -0.002316 0.003463 -0.001557 0.003624 -0.002256 -0.001993 0.001301 0.003405 -0.002573 0.000751 -0.002258 0.000835 0.004191 0.000492 0.003212 0.001903 0.000833 -0.003066 0.001609 -0.003577 0.001189 0.000217 0.002879 0.002788 -0.001856 -0.001691 -0.004114 0.003137 0.002195 0.003457 -0.002468 -0.002425 -0.002468 -0.001329 -0.000423 0.002620 0.001403 -0.001168 0.003626 -0.003752 0.002338 0.001635 0.002191 -0.001285 0.003326 0.000468 -0.002496 -0.000915 0.001353 -0.001879 -0.002664 0.002896 0.002382 0.000361 0.003993
19 0.003115 -0.002476 0.003673 -0.001873 -0.000779 0.000547 -0.000724 -0.002217 0.002126 0.000364 -0.003499 0.002714 -0.000904 0.000541 -0.001415 0.000625 -0.003165 -0.003570 0.002649 0.003605 0.001662 -0.003322 0.000642 0.001801 -0.000027 0.003158 -0.001034 0.000575 -0.001171 -0.001261 -0.000024 0.001526 0.001040 -0.003740 -0.001379 -0.000325 -0.003327 0.002717 0.002658 0.000847 -0.000154 -0.000508 0.000323 -0.001075 0.002898 0.001710 0.002653 -0.002855 -0.000927 0.001654 -0.001705 -0.000275 -0.003188 -0.001544 0.002999 0.002198 -0.003133 0.002041 0.003537 -0.001257 -0.000175 -0.002802 0.002839 0.002754 -0.000517 -0.003576 0.002632 -0.000885 -0.002309 -0.002741 0.000756 -0.000103 0.000676 0.000732 -0.001980 -0.003806 0.003193 0.002242 -0.003225 -0.002975 -0.000987 -0.000123 0.000297 -0.003611 -0.002268 0.000540 0.002813 0.001690 -0.002858 -0.001516 -0.000395 0.002935 0.003915 0.002024 -0.002082 0.003341 -0.000832 0.000206 0.000795 -0.002946 0.001732 0.002419 -0.003290 -0.002572 -0.000986 0.000618 0.000011 0.000425 -0.000950 -0.001330 -0.002070 -0.000259 0.000673 -0.002099 0.002976 0.002424 0.003582 0.003642 -0.003143 0.002781 -0.001365 -0.001481 -0.001876 -0.003147 -0.003422 0.000982 -0.003621 -0.002435
10 0.000656 -0.000733 -0.001849 0.000958 0.001781 0.003447 0.002403 -0.000074 0.003356 -0.002738 0.001922 0.002593 -0.002314 0.002749 -0.001534 0.002807 0.001234 0.002370 -0.002022 0.000972 0.002280 -0.000636 0.000984 0.003641 -0.001624 -0.000918 0.001479 -0.002648 -0.001019 -0.002301 -0.003106 -0.003073 0.001490 0.002935 -0.003321 -0.000814 0.003057 -0.003299 -0.002936 -0.003463 -0.002567 -0.001193 0.003544 0.003467 0.003013 0.003944 0.003895 -0.000977 0.003888 -0.002921 0.000217 0.001427 0.003214 -0.001452 -0.001531 0.002282 0.001560 -0.003463 -0.003552 0.001683 0.001674 -0.000485 -0.003839 0.001176 0.000321 0.000911 -0.002087 -0.002274 -0.003479 -0.003170 0.002703 -0.003137 0.003623 -0.000337 0.003718 0.001503 -0.000036 -0.001673 -0.003156 -0.000145 -0.003763 -0.002799 0.000272 0.002217 -0.003211 0.001193 -0.002779 -0.002630 -0.000100 -0.001763 0.003390 0.000885 0.003485 0.002860 0.000308 0.002677 -0.000663 -0.003552 0.000869 0.002301 -0.001697 -0.001327 -0.000329 0.001037 -0.001998 -0.000901 0.003833 0.003719 -0.002844 0.001939 0.003512 -0.003780 0.001888 -0.001232 0.001587 0.000196 0.001005 0.003179 -0.001246 -0.003037 -0.000337 -0.001696 0.000066 0.000025 0.003818 -0.000987 -0.002182 0.001192
13 0.002388 -0.000244 0.001673 -0.002582 -0.000931 -0.001237 0.001393 -0.002319 0.001067 0.002754 -0.002433 -0.002192 0.001930 -0.003764 0.001079 -0.000864 -0.003093 -0.001724 -0.001109 -0.002823 0.004264 -0.000236 -0.003211 0.000976 -0.003651 -0.000094 0.003622 0.002742 0.001077 0.000300 -0.002540 0.002347 -0.001249 -0.002076 -0.000114 -0.002660 0.004201 0.004069 0.000601 -0.000989 0.001537 0.000420 0.000549 0.002196 -0.000297 0.003422 0.001320 0.000576 -0.001982 0.002715 -0.002853 0.003152 0.002267 0.002862 -0.003263 -0.002739 -0.003400 -0.002432 0.002220 -0.002700 0.002905 -0.000027 -0.002458 -0.002448 0.002524 -0.003085 -0.002624 -0.002440 0.003048 -0.003967 -0.002603 -0.001720 -0.000048 -0.002352 0.001658 -0.003406 -0.000856 -0.001503 -0.003034 -0.002810 0.000164 -0.003260 -0.000937 -0.002383 -0.003914 0.000232 0.002592 -0.000665 -0.002793 0.003930 0.004070 -0.001492 -0.002498 -0.003402 0.000400 -0.001651 -0.000343 -0.004085 -0.002535 0.000069 0.002403 0.000514 -0.001387 0.000008 -0.001384 -0.003584 0.003469 -0.002099 -0.000391 -0.003968 0.003695 -0.000672 -0.000890 0.003155 -0.003352 -0.002790 -0.003078 0.003804 0.000951 -0.002225 0.000721 0.002483 0.003780 0.000924 -0.001644 0.002663 0.001724 0.003206
22 0.002246 -0.002337 -0.000481 0.000184 -0.000348 -0.003042 -0.000800 -0.000994 -0.002468 -0.001161 -0.001673 0.001348 0.002295 -0.002374 0.002121 -0.001745 -0.002629 -0.001436 0.003901 0.003351 0.002905 -0.000332 0.003697 0.000439 -0.003007 0.003357 -0.001022 -0.003734 0.002032 0.002812 -0.000152 -0.002414 -0.003095 0.000174 -0.001424 -0.002946 -0.000454 -0.001280 -0.002210 -0.003181 0.003133 -0.003596 -0.002676 0.003226 0.001931 0.003827 -0.003284 0.002166 0.002735 -0.001520 -0.002533 -0.001787 -0.003310 -0.001159 0.003022 0.000395 0.002556 0.003305 0.001857 -0.003070 0.001878 0.001244 0.001636 0.003581 -0.000838 0.000844 -0.003935 0.001943 0.003577 0.002746 -0.001756 0.001949 -0.000473 -0.001496 0.003924 0.001673 -0.002627 0.001813 0.002919 -0.000639 -0.003039 -0.001597 0.002640 -0.004143 -0.000332 -0.001999 0.002963 -0.003233 0.002453 -0.000047 0.002081 -0.001480 0.000298 -0.003565 -0.000750 0.000935 -0.001071 0.000320 0.002954 -0.002684 -0.001055 0.001105 0.001626 0.002740 0.001039 0.002962 -0.000032 0.002473 0.000021 0.000460 0.002737 0.000333 0.002480 0.003210 -0.001679 -0.000398 -0.002700 0.000616 -0.002771 -0.001217 0.001484 -0.002170 0.001351 -0.002647 0.001051 0.000643 0.002117 0.000722
21 -0.003350 0.003157 0.000494 -0.003508 -0.003365 -0.001092 -0.000787 -0.002531 0.000613 0.003752 0.000128 0.000591 0.000822 -0.003691 -0.000412 0.000124 0.000099 -0.000275 0.002180 0.000833 0.002754 -0.000494 -0.000877 0.001889 0.000452 -0.001279 0.001545 0.000533 0.000376 0.000004 0.002773 -0.000798 0.000057 0.001746 -0.003353 -0.002590 -0.000386 0.003855 0.002727 0.001125 -0.003311 0.003775 -0.002427 -0.002065 -0.003372 0.001324 0.000825 0.000812 0.002886 -0.000523 0.003052 0.002365 0.002860 -0.002256 -0.001502 0.001510 0.000170 -0.003258 -0.003823 0.003007 -0.001887 -0.000291 0.000528 0.003160 0.003664 -0.001414 -0.000634 -0.003539 -0.002050 -0.004041 0.003132 -0.003926 0.000741 0.001714 0.002616 0.000112 -0.002430 -0.002735 0.001519 0.002719 -0.001993 0.000479 -0.001433 -0.004189 -0.002859 -0.001730 -0.002253 -0.002033 0.003477 -0.002702 0.003395 0.001674 -0.002013 0.003495 -0.000260 -0.001192 -0.002740 0.001843 0.001086 -0.000521 -0.001622 -0.001587 -0.001244 0.003315 0.003708 0.002437 -0.000120 -0.002814 -0.001505 -0.002309 0.003941 0.002987 -0.000884 0.001758 -0.002064 0.003480 -0.003652 0.000005 0.000698 0.003520 -0.000528 -0.001721 0.000225 -0.004172 0.002497 0.001021 0.002992 -0.003116
12 -0.003974 -0.003599 0.000636 -0.002619 -0.001913 -0.001846 -0.002328 -0.003499 -0.002330 0.002633 0.003538 0.004176 -0.000793 0.001540 0.000141 0.002230 -0.003526 0.000810 0.002624 -0.003519 0.001852 0.003014 0.001764 -0.001976 -0.003541 -0.001643 0.002138 0.001247 0.000589 -0.000291 0.001631 0.001673 -0.004033 0.001210 0.000920 0.002492 -0.000654 0.002708 0.000118 0.001793 -0.000284 -0.000170 0.002296 -0.000731 -0.001293 0.003786 0.001822 -0.001066 -0.003267 -0.001160 -0.001808 0.002115 -0.000655 -0.003543 -0.003582 -0.003458 0.000380 0.000639 -0.000291 0.001520 0.002873 0.001134 -0.002725 0.002524 -0.003257 0.000178 0.002173 -0.000390 0.003249 0.003322 0.003799 0.002048 0.001269 0.001163 0.001125 -0.000464 0.003782 0.003305 0.000667 0.003647 -0.000988 0.000592 -0.003175 -0.002536 -0.003057 0.003618 -0.000661 -0.000863 -0.002477 -0.003138 -0.000243 0.002927 -0.001322 -0.001322 0.001591 -0.002087 0.002384 -0.003886 0.001544 -0.000122 -0.004297 -0.003052 0.000102 0.000737 0.000188 -0.003610 0.000838 -0.000360 0.003593 -0.003517 -0.003287 -0.000288 -0.000013 0.002596 0.000790 0.003018 -0.001458 0.003716 -0.003929 -0.003402 -0.001805 -0.002108 0.001745 0.002067 -0.001679 0.000597 -0.003879 0.000191
